#pragma once
#include <cstdarg>
namespace Eloquent {
    namespace ML {
        namespace Port {
            class SVM {
                public:
                    /**
                    * Predict class for features vector
                    */
                    int predict(float *x) {
                        float kernels[87] = { 0 };
                        float decisions[1] = { 0 };
                        int votes[2] = { 0 };
                        kernels[0] = compute_kernel(x,   3.74417969  , 6.4553418  , 4.33513672  , 0.02176758  , 0.29900391  , -0.02007812  , 1.24954293  , 5.53383969  , 2.49990554  , 0.3301676  , 0.51052954  , 1.01896201  , 2.3  , -11.66  , 1.47  , -1.43  , -1.3  , -26.0  , 13.11  , 90.93  , 16.55  , 1.75  , 1.88  , 2.21  , 41.0 );
                        kernels[1] = compute_kernel(x,   3.83011719  , 7.18087891  , 4.50609375  , -0.00532227  , 0.23889648  , 0.16249023  , 1.34401225  , 3.25689938  , 2.52066405  , 0.4376561  , 0.79760399  , 0.55849245  , 1.52  , -5.18  , 1.06  , -1.55  , -2.15  , -1.32  , 10.76  , 10.93  , 12.5  , 1.41  , 2.18  , 1.7  , 41.0 );
                        kernels[2] = compute_kernel(x,   6.72741211  , 0.42355469  , -6.51110352  , -0.04916992  , -0.00474609  , -0.0027832  , 0.16883517  , 2.83023006  , 0.73493586  , 0.01633375  , 0.05352546  , 0.02514738  , 6.2  , -0.14  , -6.9  , -0.23  , -0.4  , -0.09  , 7.81  , 90.93  , 16.55  , 0.01  , 0.68  , 0.26  , 105.0 );
                        kernels[3] = compute_kernel(x,   6.64826172  , 3.09092773  , 6.28756836  , -0.02683594  , -0.02813477  , -0.01310547  , 2.35780985  , 3.6610257  , 2.82110075  , 0.46488442  , 0.31030217  , 0.37702283  , 2.43  , -7.92  , 1.1  , -1.17  , -2.08  , -2.28  , 12.95  , 90.93  , 16.55  , 2.41  , 2.28  , 1.67  , 41.0 );
                        kernels[4] = compute_kernel(x,   3.4874707  , 8.83864258  , 3.20189453  , -0.09176758  , -0.07392578  , -0.02969727  , 0.73715733  , 2.59411093  , 0.57994454  , 0.17609951  , 0.30804674  , 0.3214202  , -0.91  , 7.31  , 1.32  , -1.2  , -1.16  , -1.62  , 4.58  , 90.93  , 16.55  , 0.34  , 1.07  , 1.1  , 44.0 );
                        kernels[5] = compute_kernel(x,   2.5325  , 4.1759082  , 9.53639648  , -0.04958984  , -0.00258789  , -0.00357422  , 0.03259302  , 0.05810278  , 0.0752522  , 0.01121643  , 0.00795753  , 0.00510805  , 2.45  , 4.06  , 9.37  , -0.08  , -0.03  , -0.02  , 2.61  , 4.32  , 9.71  , -0.02  , 0.02  , 0.01  , 91.0 );
                        kernels[6] = compute_kernel(x,   3.09726562  , 6.13960937  , 7.66261719  , -0.04379883  , 0.03555664  , -0.02661133  , 0.88587304  , 4.22663269  , 1.86553601  , 0.27784031  , 0.36322702  , 0.59388875  , 1.78  , -4.41  , 2.03  , -1.75  , -1.44  , -4.37  , 11.55  , 90.93  , 16.55  , 0.89  , 1.66  , 2.07  , 41.0 );
                        kernels[7] = compute_kernel(x,   6.08354492  , -4.91490234  , 6.41938477  , -0.04708984  , -0.0234082  , 0.00598633  , 2.20001701  , 2.27378165  , 1.13478906  , 0.1857689  , 0.20783389  , 0.32009673  , 0.32  , -10.92  , 3.03  , -1.35  , -1.32  , -1.75  , 8.61  , -2.21  , 8.97  , 0.8  , 0.79  , 0.88  , 91.0 );
                        kernels[8] = compute_kernel(x,   8.33100586  , 0.56966797  , 3.76845703  , -0.01378906  , -0.0309668  , -0.00844727  , 1.8378805  , 3.46302851  , 3.34701499  , 0.4091754  , 0.53065458  , 0.58633881  , 0.39  , -5.97  , -3.78  , -1.61  , -3.67  , -3.25  , 28.4  , 9.01  , 9.2  , 2.25  , 2.51  , 1.96  , 41.0 );
                        kernels[9] = compute_kernel(x,   9.67117187  , 2.63352539  , 1.51331055  , -0.05078125  , -0.00347656  , -0.00462891  , 0.09551257  , 0.11827691  , 0.24050297  , 0.02487027  , 0.04814147  , 0.02373887  , 8.73  , 1.64  , 0.69  , -0.2  , -0.34  , -0.22  , 10.52  , 3.06  , 2.21  , 0.06  , 0.2  , 0.13  , 44.0 );
                        kernels[10] = compute_kernel(x,   8.69961914  , 4.67983398  , -0.50037109  , -0.06657227  , -0.01043945  , -0.01038086  , 0.54725358  , 2.83345611  , 0.56988079  , 0.12784981  , 0.12006469  , 0.05987089  , 6.95  , 1.81  , -1.05  , -1.25  , -1.32  , -0.31  , 10.01  , 90.93  , 16.55  , 0.19  , 0.68  , 0.33  , 41.0 );
                        kernels[11] = compute_kernel(x,   3.84261719  , 0.12432617  , -8.39430664  , -0.05038086  , -0.00121094  , -0.00201172  , 0.04813297  , 0.01733559  , 0.09613888  , 0.00191404  , 0.0035491  , 0.00400876  , 3.74  , 0.07  , -8.56  , -0.06  , -0.01  , -0.01  , 3.95  , 0.17  , -8.23  , -0.05  , 0.01  , 0.0  , 82.0 );
                        kernels[12] = compute_kernel(x,   8.91464844  , 3.60608398  , 2.90300781  , -0.08816406  , -0.01521484  , -0.03619141  , 1.11584306  , 1.64793544  , 0.42332613  , 0.27912662  , 0.27326004  , 0.30827796  , 3.26  , 0.45  , -0.43  , -2.23  , -2.69  , -2.68  , 11.04  , 8.48  , 5.03  , 1.05  , 1.12  , 0.68  , 44.0 );
                        kernels[13] = compute_kernel(x,   3.83866211  , 0.21134766  , -8.36828125  , -0.05125977  , -0.00105469  , -0.0021875  , 0.04752946  , 2.83639267  , 0.78477279  , 0.00351821  , 0.02165652  , 0.00413399  , 3.73  , 0.07  , -8.56  , -0.09  , -0.01  , -0.01  , 3.93  , 90.93  , 16.55  , -0.04  , 0.68  , 0.0  , 82.0 );
                        kernels[14] = compute_kernel(x,   3.84767578  , 0.12683594  , -8.39256836  , -0.05053711  , -0.00130859  , -0.00182617  , 0.04852179  , 0.01740904  , 0.09362672  , 0.00229737  , 0.00362372  , 0.00386352  , 3.75  , 0.07  , -8.56  , -0.06  , -0.01  , -0.01  , 3.95  , 0.18  , -8.23  , -0.04  , 0.01  , 0.0  , 85.0 );
                        kernels[15] = compute_kernel(x,   4.80394531  , 0.5803125  , -7.878125  , -0.05  , -0.00248047  , -0.00224609  , 0.03197687  , 0.0144934  , 0.07065265  , 0.0  , 0.00536733  , 0.00417325  , 4.7  , 0.54  , -8.03  , -0.05  , -0.02  , -0.01  , 4.89  , 0.63  , -7.74  , -0.05  , 0.01  , 0.0  , 100.0 );
                        kernels[16] = compute_kernel(x,   4.82980469  , -5.06771484  , 2.12454102  , -0.06008789  , -0.08966797  , 0.02081055  , 3.82973619  , 4.30803767  , 5.22755982  , 0.46056637  , 0.45961483  , 0.63421275  , -4.77  , -12.54  , -13.72  , -2.21  , -2.82  , -3.35  , 15.65  , 90.93  , 16.55  , 1.39  , 1.89  , 2.51  , 41.0 );
                        kernels[17] = compute_kernel(x,   2.45663086  , 4.15790039  , 9.57441406  , -0.05414063  , 0.00761719  , -0.0050293  , 0.16773734  , 0.11049951  , 0.11361018  , 0.0446169  , 0.07718678  , 0.01857205  , 0.26  , 3.41  , 9.32  , -0.62  , -0.11  , -0.19  , 3.04  , 5.33  , 10.39  , 0.06  , 0.95  , 0.15  , 88.0 );
                        kernels[18] = compute_kernel(x,   3.83919922  , 0.12304688  , -8.3915918  , -0.05144531  , -0.00167969  , -0.00219727  , 0.04793126  , 0.01729494  , 0.09330051  , 0.0110689  , 0.00396653  , 0.00414061  , 3.75  , 0.07  , -8.56  , -0.39  , -0.02  , -0.01  , 3.94  , 0.18  , -8.23  , -0.04  , 0.01  , 0.0  , 85.0 );
                        kernels[19] = compute_kernel(x,   4.20987305  , 0.48041016  , -8.16066406  , -0.04935547  , -0.00167969  , -0.00335938  , 0.03492575  , 2.82798432  , 0.78085937  , 0.00333287  , 0.02210837  , 0.00500427  , 4.12  , 0.33  , -8.38  , -0.09  , -0.01  , -0.01  , 4.3  , 90.93  , 16.55  , -0.04  , 0.68  , 0.01  , 100.0 );
                        kernels[20] = compute_kernel(x,   5.98417969  , 0.54858398  , -7.11026367  , -0.05  , -0.0040332  , -0.0009668  , 0.03245657  , 0.01855752  , 0.02558359  , 0.0  , 0.00498463  , 0.00295521  , 5.89  , 0.5  , -7.18  , -0.05  , -0.01  , -0.01  , 6.06  , 0.61  , -7.03  , -0.05  , 0.01  , 0.0  , 88.0 );
                        kernels[21] = compute_kernel(x,   3.84102539  , 0.21017578  , -8.36869141  , -0.05132813  , -0.00117188  , -0.00211914  , 0.04600254  , 2.83642593  , 0.78453425  , 0.0035895  , 0.02172254  , 0.00408664  , 3.73  , 0.07  , -8.56  , -0.09  , -0.01  , -0.01  , 3.93  , 90.93  , 16.55  , -0.04  , 0.68  , 0.0  , 85.0 );
                        kernels[22] = compute_kernel(x,   3.83766602  , 0.20763672  , -8.36834961  , -0.05137695  , -0.00125  , -0.00207031  , 0.04268482  , 2.83650514  , 0.78434917  , 0.00371842  , 0.02181241  , 0.00405178  , 3.75  , 0.07  , -8.55  , -0.09  , -0.01  , -0.01  , 3.93  , 90.93  , 16.55  , -0.04  , 0.68  , 0.0  , 85.0 );
                        kernels[23] = compute_kernel(x,   6.12835938  , 0.29139648  , -7.06330078  , -0.04998047  , -0.00275391  , -0.00365234  , 0.06127585  , 0.01987517  , 0.06829711  , 0.00062469  , 0.00530643  , 0.0048352  , 6.01  , 0.23  , -7.19  , -0.06  , -0.01  , -0.01  , 6.24  , 0.35  , -6.92  , -0.04  , 0.01  , 0.01  , 88.0 );
                        kernels[24] = compute_kernel(x,   2.76519531  , 8.96266602  , 3.57079102  , -0.11274414  , -0.19958008  , -0.06543945  , 0.9263904  , 2.59247981  , 0.64348861  , 0.17215315  , 0.39506343  , 0.44417871  , -1.01  , 7.3  , 2.23  , -1.03  , -1.74  , -2.57  , 3.95  , 90.93  , 16.55  , 0.5  , 0.68  , 1.45  , 50.0 );
                        kernels[25] = compute_kernel(x,   3.84549805  , 0.12547852  , -8.39165039  , -0.05017578  , -0.00123047  , -0.00191406  , 0.04921003  , 0.0176103  , 0.09506634  , 0.00158372  , 0.00348681  , 0.00393408  , 3.75  , 0.07  , -8.56  , -0.06  , -0.01  , -0.01  , 3.95  , 0.19  , -8.23  , -0.04  , 0.01  , 0.0  , 85.0 );
                        kernels[26] = compute_kernel(x,   3.5034668  , 7.4587793  , 4.23919922  , 0.03651367  , 0.4090332  , 0.1665918  , 1.54976995  , 4.22643356  , 2.42859393  , 0.3790475  , 0.70079429  , 0.55000018  , -0.61  , -4.1  , 1.47  , -2.11  , -2.69  , -1.54  , 9.5  , 90.93  , 16.55  , 1.02  , 2.03  , 2.92  , 67.0 );
                        kernels[27] = compute_kernel(x,   6.10013672  , 0.28975586  , -7.08030273  , -0.05033203  , -0.00290039  , -0.00370117  , 0.05606376  , 0.02052625  , 0.06539548  , 0.0115704  , 0.00588678  , 0.00514179  , 6.0  , 0.23  , -7.2  , -0.42  , -0.01  , -0.06  , 6.21  , 0.35  , -6.95  , -0.04  , 0.01  , 0.01  , 88.0 );
                        kernels[28] = compute_kernel(x,   3.83699219  , 0.12131836  , -8.39415039  , -0.0515332  , -0.00198242  , -0.00213867  , 0.04613939  , 0.01648627  , 0.0919858  , 0.00362996  , 0.00431609  , 0.00410034  , 3.73  , 0.08  , -8.56  , -0.06  , -0.01  , -0.01  , 3.93  , 0.17  , -8.24  , -0.04  , 0.01  , 0.0  , 85.0 );
                        kernels[29] = compute_kernel(x,   3.59986328  , 0.28267578  , -8.32915039  , -0.03866211  , -0.00983398  , -0.01282227  , 0.9593812  , 0.32870792  , 0.43862418  , 0.06102371  , 0.38808584  , 0.16867227  , -0.8  , -0.89  , -11.26  , -0.39  , -2.48  , -1.98  , 17.24  , 3.65  , -2.84  , 0.57  , 4.37  , 0.91  , 94.0 );
                        kernels[30] = compute_kernel(x,   2.78818359  , 8.80148438  , 3.64525391  , -0.09270508  , -0.10443359  , -0.04273438  , 1.1019693  , 0.36694413  , 0.51061002  , 0.1231956  , 0.30619909  , 0.24979981  , -1.19  , 6.88  , 2.49  , -0.81  , -1.24  , -1.18  , 4.29  , 11.11  , 5.34  , 0.29  , 1.04  , 0.84  , 47.0 );
                        kernels[31] = compute_kernel(x,   3.83969727  , 0.11890625  , -8.39110352  , -0.05088867  , -0.00211914  , -0.00206055  , 0.03997321  , 0.01576732  , 0.08840632  , 0.00287963  , 0.00483128  , 0.0040447  , 3.75  , 0.07  , -8.55  , -0.06  , -0.01  , -0.01  , 3.94  , 0.17  , -8.23  , -0.04  , 0.01  , 0.0  , 82.0 );
                        kernels[32] = compute_kernel(x,   3.70004883  , 0.13641602  , -8.37046875  , -0.0496875  , -0.00581055  , -0.00083008  , 0.03372247  , 0.01642772  , 0.06675058  , 0.00173993  , 0.0051089  , 0.00275894  , 3.61  , 0.09  , -8.5  , -0.05  , -0.02  , -0.01  , 3.79  , 0.19  , -8.24  , -0.04  , 0.01  , 0.0  , 94.0 );
                        kernels[33] = compute_kernel(x,   3.70713867  , 0.12212891  , -8.41450195  , -0.05040039  , -0.00396484  , -0.00141602  , 0.04046261  , 0.01576682  , 0.07883271  , 0.00404272  , 0.00508739  , 0.00348641  , 3.62  , 0.07  , -8.57  , -0.06  , -0.01  , -0.01  , 3.8  , 0.17  , -8.26  , -0.04  , 0.01  , 0.0  , 82.0 );
                        kernels[34] = compute_kernel(x,   3.06741211  , 8.97830078  , 3.25714844  , -0.05504883  , -0.00289063  , -0.01014648  , 0.57423339  , 2.59888683  , 0.52953572  , 0.13385217  , 0.27442633  , 0.28858978  , 0.2  , 6.84  , 2.83  , -0.89  , -1.63  , -1.5  , 3.88  , 90.93  , 16.55  , 0.18  , 0.68  , 1.05  , 108.0 );
                        kernels[35] = compute_kernel(x,   3.83885742  , 0.12303711  , -8.39259766  , -0.05133789  , -0.00163086  , -0.00224609  , 0.04845426  , 0.01710076  , 0.09507034  , 0.01132213  , 0.00394994  , 0.00424287  , 3.73  , 0.07  , -8.55  , -0.4  , -0.03  , -0.01  , 3.96  , 0.17  , -8.22  , -0.04  , 0.01  , 0.01  , 85.0 );
                        kernels[36] = compute_kernel(x,   5.9509668  , 0.70816406  , -7.08016602  , -0.05041016  , -0.0028125  , -0.00097656  , 0.03542905  , 3.99123017  , 1.0456807  , 0.01076324  , 0.03066483  , 0.00315972  , 5.85  , 0.48  , -7.2  , -0.39  , -0.02  , -0.04  , 6.02  , 90.93  , 16.55  , -0.05  , 0.68  , 0.0  , 88.0 );
                        kernels[37] = compute_kernel(x,   2.76665039  , 6.32714844  , 7.87064453  , -0.04550781  , 0.00058594  , 0.00196289  , 0.24944589  , 0.32764738  , 0.22559681  , 0.0523709  , 0.12516414  , 0.11689319  , 1.83  , 3.78  , 7.2  , -0.38  , -0.46  , -0.44  , 3.94  , 7.69  , 8.99  , 0.2  , 1.11  , 0.77  , 105.0 );
                        kernels[38] = compute_kernel(x,   3.71189453  , 0.13040039  , -8.38291992  , -0.04983398  , -0.00508789  , -0.00116211  , 0.03251389  , 0.01616975  , 0.06600167  , 0.001352  , 0.00520967  , 0.00320478  , 3.63  , 0.08  , -8.51  , -0.06  , -0.02  , -0.01  , 3.79  , 0.19  , -8.25  , -0.04  , 0.01  , 0.0  , 94.0 );
                        kernels[39] = compute_kernel(x,   8.98654297  , 3.61078125  , 3.47643555  , -0.05114258  , -0.0009082  , -0.0027832  , 0.02414074  , 0.03605247  , 0.03477452  , 0.00569086  , 0.00798285  , 0.00507443  , 8.9  , 3.45  , 3.37  , -0.07  , -0.03  , -0.02  , 9.12  , 3.71  , 3.6  , -0.03  , 0.03  , 0.01  , 88.0 );
                        kernels[40] = compute_kernel(x,   2.49157227  , 4.17306641  , 9.54598633  , -0.04929688  , -0.00259766  , -0.00351563  , 0.03364522  , 0.06297609  , 0.08004518  , 0.01134051  , 0.00747981  , 0.00514855  , 2.4  , 4.05  , 9.37  , -0.08  , -0.02  , -0.01  , 2.59  , 4.36  , 9.72  , -0.02  , 0.02  , 0.01  , 85.0 );
                        kernels[41] = compute_kernel(x,   8.65873047  , -3.27092773  , 4.96916992  , -0.07939453  , -0.00222656  , -0.0071582  , 0.43288723  , 0.73071202  , 0.82381828  , 0.24339803  , 0.17016973  , 0.14344407  , 6.33  , -4.92  , 2.48  , -1.28  , -1.42  , -0.69  , 12.12  , -1.42  , 7.58  , 0.71  , 0.75  , 0.65  , 41.0 );
                        kernels[42] = compute_kernel(x,   3.84883789  , 0.1262793  , -8.38939453  , -0.05019531  , -0.00129883  , -0.00201172  , 0.04869706  , 0.01714837  , 0.09502685  , 0.00158143  , 0.00372027  , 0.00400876  , 3.73  , 0.07  , -8.56  , -0.06  , -0.01  , -0.01  , 3.95  , 0.18  , -8.23  , -0.04  , 0.01  , 0.0  , 82.0 );
                        kernels[43] = compute_kernel(x,   1.80556641  , 5.9796582  , 8.62139648  , -0.050625  , 0.00292969  , -0.00302734  , 0.11417448  , 3.85699028  , 0.46347627  , 0.01188322  , 0.12423599  , 0.02082327  , 1.22  , -21.85  , 8.21  , -0.09  , -0.06  , -0.23  , 2.25  , 90.93  , 16.55  , -0.02  , 3.82  , 0.09  , 41.0 );
                        kernels[44] = compute_kernel(x,   2.6525  , 8.79981445  , 3.56174805  , -0.04339844  , 0.01802734  , 5.859e-05  , 1.4735557  , 0.37575401  , 0.76751232  , 0.19343365  , 0.51587439  , 0.350118  , -3.9  , 6.69  , 2.21  , -0.9  , -4.58  , -1.39  , 3.52  , 10.27  , 6.34  , 0.52  , 1.96  , 1.64  , 76.0 );
                        kernels[45] = compute_kernel(x,   3.70100586  , 8.51994141  , 3.10701172  , 0.031875  , 0.19657227  , 0.01885742  , 1.98832306  , 2.95925366  , 1.0953592  , 0.45888771  , 0.73454364  , 0.62830498  , -4.27  , 0.63  , -0.06  , -1.45  , -5.65  , -2.73  , 15.83  , 90.93  , 16.55  , 7.96  , 2.16  , 3.47  , 85.0 );
                        kernels[46] = compute_kernel(x,   3.15753906  , 8.93397461  , 3.03366211  , -0.05022461  , -0.00253906  , -0.00385742  , 0.08661493  , 0.06069522  , 0.04701611  , 0.01531085  , 0.03686968  , 0.0203884  , 2.82  , 8.77  , 2.92  , -0.33  , -0.22  , -0.11  , 3.34  , 9.11  , 3.18  , 0.01  , 0.15  , 0.07  , 41.0 );
                        kernels[47] = compute_kernel(x,   2.14783203  , 8.74197266  , 4.20959961  , -0.05095703  , -0.06303711  , -0.03642578  , 1.66367692  , 2.6604584  , 1.19661687  , 0.24635044  , 0.58936295  , 0.45810722  , -3.44  , 6.87  , 0.89  , -0.86  , -1.73  , -2.54  , 4.95  , 90.93  , 16.55  , 1.01  , 3.44  , 1.73  , 50.0 );
                        kernels[48] = compute_kernel(x,   3.70802734  , 0.20966797  , -8.39646484  , -0.05113281  , -0.00261719  , -0.00146484  , 0.04326534  , 2.83643725  , 0.78396018  , 0.00455928  , 0.02192819  , 0.00353591  , 3.61  , 0.07  , -8.57  , -0.09  , -0.02  , -0.01  , 3.81  , 90.93  , 16.55  , -0.04  , 0.68  , 0.0  , 82.0 );
                        kernels[49] = compute_kernel(x,   3.83890625  , 0.12144531  , -8.39417969  , -0.05151367  , -0.00188477  , -0.00216797  , 0.0466492  , 0.01673148  , 0.09359733  , 0.01081421  , 0.00431458  , 0.00414426  , 3.75  , 0.07  , -8.58  , -0.38  , -0.05  , -0.01  , 3.94  , 0.18  , -8.24  , -0.04  , 0.01  , 0.01  , 82.0 );
                        kernels[50] = compute_kernel(x,   3.84661133  , 0.11900391  , -8.38804688  , -0.05001953  , -0.00214844  , -0.00174805  , 0.03624652  , 0.01597068  , 0.08533421  , 0.00088367  , 0.00480818  , 0.003798  , 3.75  , 0.07  , -8.55  , -0.06  , -0.01  , -0.01  , 3.93  , 0.18  , -8.23  , -0.04  , 0.01  , 0.0  , 85.0 );
                        kernels[51] = compute_kernel(x,   2.43553711  , 4.3031543  , 9.5962207  , -0.04967773  , -0.00120117  , -0.00352539  , 0.0309281  , 3.83259501  , 0.31891245  , 0.00947827  , 0.03096783  , 0.00533756  , 2.36  , 3.97  , 9.39  , -0.09  , -0.02  , -0.02  , 2.73  , 90.93  , 16.55  , -0.02  , 0.68  , 0.03  , 82.0 );
                        kernels[52] = compute_kernel(x,   5.24015625  , 0.48867188  , -7.62008789  , -0.05037109  , -0.00214844  , -0.00349609  , 0.07207293  , 2.82778133  , 0.76422045  , 0.01069184  , 0.02185878  , 0.00498866  , 5.11  , 0.34  , -7.84  , -0.39  , -0.05  , -0.04  , 5.38  , 90.93  , 16.55  , -0.05  , 0.68  , 0.01  , 85.0 );
                        kernels[53] = compute_kernel(x,   3.84821289  , 0.12493164  , -8.39154297  , -0.05025391  , -0.00107422  , -0.00172852  , 0.04962781  , 0.01695569  , 0.09583699  , 0.00174944  , 0.0031897  , 0.00378119  , 3.75  , 0.07  , -8.56  , -0.06  , -0.01  , -0.01  , 3.95  , 0.17  , -8.22  , -0.04  , 0.01  , 0.0  , 82.0 );
                        kernels[54] = compute_kernel(x,   3.84818359  , 0.12614258  , -8.39368164  , -0.05097656  , -0.00117188  , -0.00189453  , 0.04941278  , 0.01736171  , 0.09464583  , 0.01583063  , 0.00350693  , 0.00401713  , 3.74  , 0.08  , -8.56  , -0.44  , -0.03  , -0.03  , 3.95  , 0.18  , -8.23  , -0.04  , 0.01  , 0.0  , 82.0 );
                        kernels[55] = compute_kernel(x,   5.26850586  , 0.6280957  , -7.46475586  , -0.05546875  , -0.00885742  , 0.00259766  , 1.38216415  , 0.28729304  , 0.85662648  , 0.06199936  , 0.24180789  , 0.11292494  , 1.02  , -2.06  , -10.72  , -0.4  , -2.11  , -0.99  , 10.28  , 3.41  , -3.84  , 0.4  , 1.52  , 0.62  , 41.0 );
                        kernels[56] = compute_kernel(x,   5.24763672  , 0.394375  , -7.6453125  , -0.05  , -0.00220703  , -0.00357422  , 0.06673526  , 0.02320089  , 0.1070772  , 0.0  , 0.00435398  , 0.00487323  , 5.12  , 0.33  , -7.82  , -0.05  , -0.01  , -0.01  , 5.38  , 0.45  , -7.46  , -0.05  , 0.01  , 0.01  , 88.0 );
                        kernels[57] = compute_kernel(x,   3.84604492  , 0.21532227  , -8.36914062  , -0.0503125  , -0.00019531  , -0.00188477  , 0.04940547  , 2.83627401  , 0.78478926  , 0.0020492  , 0.02146857  , 0.00391092  , 3.74  , 0.08  , -8.56  , -0.09  , -0.01  , -0.01  , 3.94  , 90.93  , 16.55  , -0.05  , 0.68  , 0.0  , 82.0 );
                        kernels[58] = compute_kernel(x,   5.26112305  , 0.39688477  , -7.64121094  , -0.05  , -0.00208008  , -0.00360352  , 0.06598716  , 0.02342213  , 0.105692  , 0.0  , 0.0043604  , 0.00486166  , 5.13  , 0.34  , -7.82  , -0.05  , -0.01  , -0.01  , 5.38  , 0.45  , -7.47  , -0.05  , 0.01  , 0.01  , 85.0 );
                        kernels[59] = compute_kernel(x,   3.85571289  , 0.23022461  , -8.35441406  , -0.0500293  , 0.00026367  , -0.00199219  , 0.12839332  , 2.83581504  , 0.82626977  , 0.00209611  , 0.02134237  , 0.00399413  , 0.0  , 0.0  , -8.55  , -0.09  , -0.01  , -0.01  , 3.96  , 90.93  , 16.55  , 0.0  , 0.68  , 0.0  , 82.0 );
                        kernels[60] = compute_kernel(x,   3.88121094  , 0.13848633  , -8.36789062  , -0.05000977  , -0.00035156  , -0.00231445  , 0.04314649  , 0.01827401  , 0.08706725  , 0.00031235  , 0.0019449  , 0.00421756  , 3.78  , 0.09  , -8.52  , -0.06  , -0.01  , -0.01  , 4.0  , 0.2  , -8.21  , -0.05  , 0.01  , 0.0  , 105.0 );
                        kernels[61] = compute_kernel(x,   3.88700195  , 0.13842773  , -8.36041992  , -0.05  , -0.00012695  , -0.00237305  , 0.04177806  , 0.0178363  , 0.08437338  , 0.0  , 0.00142642  , 0.00425431  , 3.8  , 0.08  , -8.52  , -0.05  , -0.01  , -0.01  , 3.98  , 0.2  , -8.21  , -0.05  , 0.01  , 0.0  , 85.0 );
                        kernels[62] = compute_kernel(x,   3.85134766  , 0.1312793  , -8.39726562  , -0.05023438  , -0.00050781  , -0.00197266  , 0.04677427  , 0.01799588  , 0.09184281  , 0.00151288  , 0.00244788  , 0.00397935  , 3.76  , 0.07  , -8.55  , -0.06  , -0.01  , -0.01  , 3.95  , 0.18  , -8.24  , -0.05  , 0.01  , 0.0  , 85.0 );
                        kernels[63] = compute_kernel(x,   5.24185547  , 0.39424805  , -7.64636719  , -0.05  , -0.00254883  , -0.00335938  , 0.07291687  , 0.02465823  , 0.11517432  , 0.0  , 0.00461904  , 0.00476434  , 5.11  , 0.33  , -7.85  , -0.05  , -0.01  , -0.01  , 5.38  , 0.45  , -7.45  , -0.05  , 0.01  , 0.01  , 88.0 );
                        kernels[64] = compute_kernel(x,   5.24301758  , 0.48195313  , -7.62452148  , -0.05003906  , -0.00160156  , -0.00348633  , 0.06882933  , 2.82798009  , 0.76373668  , 0.00124939  , 0.021767  , 0.00484665  , 5.11  , 0.34  , -7.84  , -0.09  , -0.01  , -0.01  , 5.38  , 90.93  , 16.55  , -0.05  , 0.68  , 0.01  , 85.0 );
                        kernels[65] = compute_kernel(x,   3.85763672  , 0.14384766  , -8.37794922  , -0.04996094  , -0.00025391  , -0.00208984  , 0.1284724  , 0.01903534  , 0.27617309  , 0.00159296  , 0.00205728  , 0.00406583  , 0.0  , 0.0  , -8.55  , -0.06  , -0.01  , -0.01  , 3.95  , 0.19  , 0.0  , 0.0  , 0.01  , 0.0  , 82.0 );
                        kernels[66] = compute_kernel(x,   5.24373047  , 0.39439453  , -7.64722656  , -0.05  , -0.00231445  , -0.00357422  , 0.07049871  , 0.02379569  , 0.11298301  , 0.0  , 0.00430919  , 0.00501155  , 5.09  , 0.34  , -7.84  , -0.05  , -0.01  , -0.01  , 5.38  , 0.45  , -7.45  , -0.05  , 0.01  , 0.01  , 88.0 );
                        kernels[67] = compute_kernel(x,   5.24224609  , 0.58324219  , -7.58836914  , -0.05041016  , -0.00173828  , -0.00367188  , 0.07945022  , 3.99680041  , 1.07473978  , 0.01076324  , 0.03057243  , 0.00494044  , 5.09  , 0.34  , -7.84  , -0.39  , -0.03  , -0.02  , 5.4  , 90.93  , 16.55  , -0.05  , 0.68  , 0.01  , 85.0 );
                        kernels[68] = compute_kernel(x,   2.55227539  , 4.16995117  , 9.52899414  , -0.05014648  , -0.00195312  , -0.00355469  , 0.03645682  , 0.05281433  , 0.0753382  , 0.00943098  , 0.00734832  , 0.00512166  , 2.42  , 4.07  , 9.36  , -0.08  , -0.02  , -0.01  , 2.66  , 4.38  , 9.68  , -0.03  , 0.02  , 0.01  , 85.0 );
                        kernels[69] = compute_kernel(x,   3.05722656  , 0.36358398  , -8.6040918  , -0.05  , -0.00286133  , -0.00248047  , 0.02352532  , 0.02255953  , 0.1059018  , 0.0  , 0.0058893  , 0.00431879  , 2.98  , 0.3  , -8.78  , -0.05  , -0.02  , -0.01  , 3.12  , 0.44  , -8.4  , -0.05  , 0.01  , 0.0  , 97.0 );
                        kernels[70] = compute_kernel(x,   3.84916992  , 0.12854492  , -8.39415039  , -0.05013672  , -0.00071289  , -0.00192383  , 0.04762519  , 0.01671019  , 0.09252354  , 0.0012425  , 0.00286063  , 0.00394172  , 3.75  , 0.08  , -8.56  , -0.06  , -0.01  , -0.01  , 3.95  , 0.19  , -8.23  , -0.04  , 0.01  , 0.0  , 82.0 );
                        kernels[71] = compute_kernel(x,   2.60120117  , 4.18619141  , 9.50762695  , -0.05020508  , -0.00231445  , -0.00367188  , 0.03378503  , 0.05674734  , 0.07809333  , 0.01599124  , 0.00989272  , 0.00589572  , 2.52  , 4.07  , 9.33  , -0.36  , -0.09  , -0.02  , 2.73  , 4.34  , 9.67  , -0.01  , 0.06  , 0.03  , 94.0 );
                        kernels[72] = compute_kernel(x,   3.84767578  , 0.12828125  , -8.39401367  , -0.05019531  , -0.00087891  , -0.00212891  , 0.04929452  , 0.01794564  , 0.09482099  , 0.00145268  , 0.00309501  , 0.00409351  , 3.75  , 0.07  , -8.56  , -0.06  , -0.01  , -0.01  , 3.95  , 0.19  , -8.23  , -0.04  , 0.01  , 0.0  , 82.0 );
                        kernels[73] = compute_kernel(x,   5.50831055  , 0.41226562  , -7.46583984  , -0.04942383  , -0.00021484  , -0.00383789  , 0.14343436  , 2.83022273  , 0.75807958  , 0.00363899  , 0.02991447  , 0.00720901  , 4.84  , 0.07  , -7.9  , -0.09  , -0.11  , -0.04  , 5.75  , 90.93  , 16.55  , -0.03  , 0.68  , 0.02  , 108.0 );
                        kernels[74] = compute_kernel(x,   3.84643555  , 0.21654297  , -8.37174805  , -0.05032227  , -0.00013672  , -0.00205078  , 0.04945889  , 2.83623488  , 0.78482928  , 0.00211802  , 0.02145082  , 0.00403759  , 3.74  , 0.08  , -8.56  , -0.09  , -0.01  , -0.01  , 3.94  , 90.93  , 16.55  , -0.04  , 0.68  , 0.0  , 82.0 );
                        kernels[75] = compute_kernel(x,   3.84643555  , 0.12583008  , -8.39407227  , -0.05025391  , -0.0009375  , -0.00189453  , 0.04950231  , 0.01705043  , 0.09505508  , 0.0016927  , 0.00314059  , 0.00391868  , 3.74  , 0.08  , -8.57  , -0.06  , -0.01  , -0.01  , 3.96  , 0.18  , -8.23  , -0.04  , 0.01  , 0.0  , 82.0 );
                        kernels[76] = compute_kernel(x,   5.24436523  , 0.39733398  , -7.64133789  , -0.05032227  , -0.00269531  , -0.00347656  , 0.072699  , 0.02457494  , 0.11402896  , 0.01095952  , 0.00491738  , 0.00509897  , 5.1  , 0.34  , -7.84  , -0.4  , -0.02  , -0.06  , 5.39  , 0.46  , -7.45  , -0.03  , 0.02  , 0.01  , 88.0 );
                        kernels[77] = compute_kernel(x,   3.88393555  , 0.14033203  , -8.36526367  , -0.05038086  , -0.00046875  , -0.00239258  , 0.04251654  , 0.01794325  , 0.08649269  , 0.011873  , 0.00233331  , 0.0042663  , 3.78  , 0.09  , -8.52  , -0.43  , -0.01  , -0.01  , 3.98  , 0.19  , -8.21  , -0.05  , 0.02  , 0.0  , 103.0 );
                        kernels[78] = compute_kernel(x,   3.88087891  , 0.22811523  , -8.34481445  , -0.05003906  , 0.00037109  , -0.00235352  , 0.04191007  , 2.83587888  , 0.78323907  , 0.001397  , 0.02133391  , 0.00424218  , 3.8  , 0.1  , -8.52  , -0.09  , -0.01  , -0.01  , 3.97  , 90.93  , 16.55  , -0.04  , 0.68  , 0.0  , 100.0 );
                        kernels[79] = compute_kernel(x,   3.84638672  , 0.12644531  , -8.39369141  , -0.05014648  , -0.00075195  , -0.00206055  , 0.04878635  , 0.01783335  , 0.09404872  , 0.00128012  , 0.00281614  , 0.0040447  , 3.74  , 0.07  , -8.58  , -0.06  , -0.01  , -0.01  , 3.94  , 0.18  , -8.23  , -0.04  , 0.01  , 0.0  , 82.0 );
                        kernels[80] = compute_kernel(x,   2.68587891  , 4.28775391  , 9.48066406  , -0.04959961  , -0.00165039  , -0.0034668  , 0.03509486  , 2.70944518  , 0.23402088  , 0.0100844  , 0.02277846  , 0.00522846  , 2.6  , 4.09  , 9.31  , -0.09  , -0.03  , -0.01  , 2.78  , 90.93  , 16.55  , -0.02  , 0.68  , 0.01  , 85.0 );
                        kernels[81] = compute_kernel(x,   6.03901367  , 0.41646484  , -7.07157227  , -0.04830078  , -0.00916992  , -0.0056543  , 0.53674193  , 0.14497172  , 0.3717129  , 0.01469227  , 0.08057529  , 0.02338456  , 4.4  , -0.46  , -8.09  , -0.11  , -0.7  , -0.15  , 7.37  , 1.63  , -6.1  , 0.05  , 0.31  , 0.13  , 47.0 );
                        kernels[82] = compute_kernel(x,   4.71353516  , -0.3018457  , -3.68851562  , 0.07866211  , -0.01104492  , 0.0380957  , 2.03112779  , 2.09742104  , 7.03014298  , 0.38898891  , 0.19321039  , 0.34507951  , -3.17  , -10.69  , -8.52  , -0.31  , -1.06  , -1.27  , 8.59  , 4.6  , 12.2  , 2.28  , 1.0  , 1.77  , 50.0 );
                        kernels[83] = compute_kernel(x,   3.86189453  , 0.13490234  , -8.38869141  , -0.05052734  , -0.00071289  , -0.00198242  , 0.04653129  , 0.01821074  , 0.09196343  , 0.01039809  , 0.00305861  , 0.00398676  , 3.75  , 0.07  , -8.56  , -0.38  , -0.01  , -0.01  , 3.96  , 0.19  , -8.23  , -0.05  , 0.01  , 0.0  , 94.0 );
                        kernels[84] = compute_kernel(x,   4.7615918  , 0.3090918  , -7.70375977  , -0.04401367  , 0.01060547  , -0.01092773  , 1.57540146  , 0.74949362  , 1.24366364  , 0.08025596  , 0.26292827  , 0.12787941  , 1.09  , -21.85  , -9.35  , -0.5  , -1.66  , -1.13  , 9.38  , 2.28  , 16.55  , 0.63  , 3.82  , 0.94  , 44.0 );
                        kernels[85] = compute_kernel(x,   3.84865234  , 0.13046875  , -8.39262695  , -0.05048828  , -0.00071289  , -0.00206055  , 0.04720447  , 0.01774315  , 0.09245688  , 0.01099342  , 0.00268452  , 0.0041165  , 3.75  , 0.07  , -8.55  , -0.4  , -0.02  , -0.03  , 3.95  , 0.18  , -8.23  , -0.05  , 0.01  , 0.0  , 82.0 );
                        kernels[86] = compute_kernel(x,   2.68103516  , 4.20618164  , 9.47469727  , -0.04895508  , -0.0025  , -0.00379883  , 0.03438214  , 0.06222887  , 0.07969734  , 0.01124922  , 0.007526  , 0.00525916  , 2.59  , 4.08  , 9.29  , -0.08  , -0.02  , -0.01  , 2.76  , 4.37  , 9.64  , -0.02  , 0.02  , 0.01  , 88.0 );
                        float decision = -0.459216549467;
                        decision = decision - ( + kernels[0] * -0.515257390242  + kernels[1] * -0.453512089806  + kernels[2] * -3.233645972117  + kernels[3] * -0.162308731783  + kernels[4] * -0.144106040856  + kernels[5] * -47.899159663866  + kernels[6] * -0.072061532877  + kernels[7] * -0.07902251703  + kernels[8] * -0.507833610351  + kernels[9] * -0.61969987407  + kernels[10] * -0.323060695265  + kernels[11] * -47.899159663866  + kernels[12] * -0.015484610085  + kernels[13] * -47.899159663866  + kernels[14] * -47.899159663866  + kernels[15] * -38.901671129858  + kernels[16] * -0.494903884421  + kernels[17] * -22.727467226101  + kernels[18] * -47.899159663866  + kernels[19] * -43.371971179313  + kernels[20] * -47.899159663866  + kernels[21] * -47.899159663866  + kernels[22] * -11.112769995153  + kernels[23] * -47.899159663866  + kernels[24] * -0.001676939928  + kernels[25] * -47.899159663866  + kernels[26] * -0.380925467301  + kernels[27] * -47.899159663866  + kernels[28] * -47.724333436327  + kernels[29] * -0.737077262259  + kernels[30] * -0.259802801847  + kernels[31] * -47.899159663866  + kernels[32] * -47.899159663866  + kernels[33] * -47.899159663866  + kernels[34] * -0.88608406163  + kernels[35] * -47.899159663866  + kernels[36] * -47.899159663866  + kernels[37] * -3.313906311848  + kernels[38] * -35.346145671945  + kernels[39] * -1.793288128562  + kernels[40] * -47.899159663866  + kernels[41] * -0.338490966482  + kernels[42] * -47.899159663866  + kernels[43] * -0.500469884266  + kernels[44] * -0.630179815287  + kernels[45] * -1.214803625551  + kernels[46] * -0.208003275178  + kernels[47] * -0.270527192744  + kernels[48] * -47.899159663866  + kernels[49] * -47.899159663866  + kernels[50] * -47.899159663866  + kernels[51] * -20.800729268337 );
                        decision = decision - ( + kernels[52] * 9.837876970816  + kernels[53] * 52.293577981651  + kernels[54] * 52.293577981651  + kernels[55] * 0.893504045206  + kernels[56] * 52.293577981651  + kernels[57] * 21.929012630033  + kernels[58] * 48.514957953169  + kernels[59] * 17.030429950004  + kernels[60] * 4.54635616913  + kernels[61] * 52.293577981651  + kernels[62] * 52.293577981651  + kernels[63] * 52.293577981651  + kernels[64] * 52.293577981651  + kernels[65] * 0.668612594609  + kernels[66] * 52.293577981651  + kernels[67] * 44.918012484821  + kernels[68] * 47.902187100612  + kernels[69] * 52.293577981651  + kernels[70] * 2.075149413101  + kernels[71] * 29.325709981269  + kernels[72] * 52.293577981651  + kernels[73] * 1.749211293755  + kernels[74] * 52.293577981651  + kernels[75] * 52.293577981651  + kernels[76] * 52.293577981651  + kernels[77] * 6.350318422883  + kernels[78] * 52.293577981651  + kernels[79] * 52.293577981651  + kernels[80] * 21.217674799173  + kernels[81] * 0.922108013532  + kernels[82] * 1.15845735002  + kernels[83] * 52.293577981651  + kernels[84] * 1.16570465977  + kernels[85] * 52.293577981651  + kernels[86] * 45.928304346155 );

                        return decision > 0 ? 0 : 1;
                    }

                    /**
                    * Predict readable class name
                    */
                    const char* predictLabel(float *x) {
                        return idxToLabel(predict(x));
                    }

                    /**
                    * Convert class idx to readable name
                    */
                    const char* idxToLabel(uint8_t classIdx) {
                        switch (classIdx) {
                            case 0:
                            return "AWAKE";
                            case 1:
                            return "SLEEP";
                            default:
                            return "Houston we have a problem";
                        }
                    }

                protected:
                    /**
                    * Compute kernel between feature vector and support vector.
                    * Kernel type: rbf
                    */
                    float compute_kernel(float *x, ...) {
                        va_list w;
                        va_start(w, 25);
                        float kernel = 0.0;

                        for (uint16_t i = 0; i < 25; i++) {
                            kernel += pow(x[i] - va_arg(w, double), 2);
                        }

                        return exp(-0.005 * kernel);
                    }
                };
            }
        }
    }